digraph Tree {
node [shape=box, style="rounded", color="black", fontname=helvetica] ;
edge [fontname=helvetica] ;
0 [label="place <= 2.5\nmse = 97.5\nsamples = 4348\nvalue = 81.6"] ;
1 [label="place <= 1.5\nmse = 67.9\nsamples = 748\nvalue = 77.0"] ;
0 -> 1 [labeldistance=2.5, labelangle=45, headlabel="True"] ;
2 [label="day <= 21.5\nmse = 63.2\nsamples = 388\nvalue = 75.9"] ;
1 -> 2 ;
3 [label="day <= 3.5\nmse = 12.1\nsamples = 273\nvalue = 76.4"] ;
2 -> 3 ;
4 [label="day <= 1.5\nmse = 14.3\nsamples = 42\nvalue = 75.6"] ;
3 -> 4 ;
5 [label="mse = 10.2\nsamples = 14\nvalue = 77.2"] ;
4 -> 5 ;
6 [label="day <= 2.5\nmse = 14.6\nsamples = 28\nvalue = 74.9"] ;
4 -> 6 ;
7 [label="mse = 14.4\nsamples = 16\nvalue = 75.1"] ;
6 -> 7 ;
8 [label="mse = 14.8\nsamples = 12\nvalue = 74.7"] ;
6 -> 8 ;
9 [label="day <= 17.5\nmse = 11.5\nsamples = 231\nvalue = 76.5"] ;
3 -> 9 ;
10 [label="day <= 7.5\nmse = 10.1\nsamples = 179\nvalue = 76.7"] ;
9 -> 10 ;
11 [label="day <= 4.5\nmse = 10.0\nsamples = 48\nvalue = 76.3"] ;
10 -> 11 ;
12 [label="mse = 7.8\nsamples = 14\nvalue = 77.0"] ;
11 -> 12 ;
13 [label="day <= 6.5\nmse = 10.5\nsamples = 34\nvalue = 76.0"] ;
11 -> 13 ;
14 [label="day <= 5.5\nmse = 13.8\nsamples = 20\nvalue = 75.9"] ;
13 -> 14 ;
15 [label="mse = 10.6\nsamples = 12\nvalue = 75.9"] ;
14 -> 15 ;
16 [label="mse = 18.9\nsamples = 8\nvalue = 75.8"] ;
14 -> 16 ;
17 [label="mse = 4.5\nsamples = 14\nvalue = 76.2"] ;
13 -> 17 ;
18 [label="day <= 8.5\nmse = 10.0\nsamples = 131\nvalue = 76.9"] ;
10 -> 18 ;
19 [label="mse = 6.7\nsamples = 12\nvalue = 78.5"] ;
18 -> 19 ;
20 [label="day <= 14.5\nmse = 10.1\nsamples = 119\nvalue = 76.7"] ;
18 -> 20 ;
21 [label="day <= 13.5\nmse = 9.8\nsamples = 77\nvalue = 76.5"] ;
20 -> 21 ;
22 [label="day <= 9.5\nmse = 10.3\nsamples = 67\nvalue = 76.7"] ;
21 -> 22 ;
23 [label="mse = 10.5\nsamples = 13\nvalue = 77.2"] ;
22 -> 23 ;
24 [label="day <= 12.5\nmse = 10.1\nsamples = 54\nvalue = 76.5"] ;
22 -> 24 ;
25 [label="day <= 10.5\nmse = 11.6\nsamples = 40\nvalue = 76.6"] ;
24 -> 25 ;
26 [label="mse = 19.8\nsamples = 9\nvalue = 76.4"] ;
25 -> 26 ;
27 [label="day <= 11.5\nmse = 9.4\nsamples = 31\nvalue = 76.7"] ;
25 -> 27 ;
28 [label="mse = 14.6\nsamples = 18\nvalue = 76.7"] ;
27 -> 28 ;
29 [label="mse = 3.0\nsamples = 13\nvalue = 76.8"] ;
27 -> 29 ;
30 [label="mse = 5.0\nsamples = 14\nvalue = 76.2"] ;
24 -> 30 ;
31 [label="mse = 5.3\nsamples = 10\nvalue = 75.4"] ;
21 -> 31 ;
32 [label="day <= 16.5\nmse = 10.4\nsamples = 42\nvalue = 77.1"] ;
20 -> 32 ;
33 [label="day <= 15.5\nmse = 10.3\nsamples = 30\nvalue = 77.1"] ;
32 -> 33 ;
34 [label="mse = 8.7\nsamples = 13\nvalue = 77.2"] ;
33 -> 34 ;
35 [label="mse = 11.2\nsamples = 17\nvalue = 77.1"] ;
33 -> 35 ;
36 [label="mse = 10.7\nsamples = 12\nvalue = 77.2"] ;
32 -> 36 ;
37 [label="day <= 19.5\nmse = 15.3\nsamples = 52\nvalue = 75.8"] ;
9 -> 37 ;
38 [label="day <= 18.5\nmse = 19.0\nsamples = 22\nvalue = 74.9"] ;
37 -> 38 ;
39 [label="mse = 26.5\nsamples = 8\nvalue = 74.7"] ;
38 -> 39 ;
40 [label="mse = 13.8\nsamples = 14\nvalue = 75.1"] ;
38 -> 40 ;
41 [label="day <= 20.5\nmse = 12.4\nsamples = 30\nvalue = 76.3"] ;
37 -> 41 ;
42 [label="mse = 14.4\nsamples = 15\nvalue = 76.8"] ;
41 -> 42 ;
43 [label="mse = 10.7\nsamples = 15\nvalue = 75.9"] ;
41 -> 43 ;
44 [label="day <= 23.5\nmse = 190.3\nsamples = 115\nvalue = 74.7"] ;
2 -> 44 ;
45 [label="day <= 22.5\nmse = 784.7\nsamples = 24\nvalue = 69.7"] ;
44 -> 45 ;
46 [label="mse = 12.3\nsamples = 13\nvalue = 74.5"] ;
45 -> 46 ;
47 [label="mse = 1674.5\nsamples = 11\nvalue = 63.8"] ;
45 -> 47 ;
48 [label="day <= 25.5\nmse = 12.6\nsamples = 91\nvalue = 76.2"] ;
44 -> 48 ;
49 [label="day <= 24.5\nmse = 8.3\nsamples = 25\nvalue = 74.8"] ;
48 -> 49 ;
50 [label="mse = 4.4\nsamples = 13\nvalue = 75.3"] ;
49 -> 50 ;
51 [label="mse = 12.4\nsamples = 12\nvalue = 74.3"] ;
49 -> 51 ;
52 [label="day <= 29.5\nmse = 13.4\nsamples = 66\nvalue = 76.7"] ;
48 -> 52 ;
53 [label="day <= 28.5\nmse = 11.5\nsamples = 45\nvalue = 76.3"] ;
52 -> 53 ;
54 [label="day <= 27.5\nmse = 12.8\nsamples = 35\nvalue = 76.6"] ;
53 -> 54 ;
55 [label="day <= 26.5\nmse = 11.3\nsamples = 24\nvalue = 76.3"] ;
54 -> 55 ;
56 [label="mse = 10.3\nsamples = 10\nvalue = 76.6"] ;
55 -> 56 ;
57 [label="mse = 12.1\nsamples = 14\nvalue = 76.0"] ;
55 -> 57 ;
58 [label="mse = 15.7\nsamples = 11\nvalue = 77.5"] ;
54 -> 58 ;
59 [label="mse = 4.4\nsamples = 10\nvalue = 75.2"] ;
53 -> 59 ;
60 [label="day <= 30.5\nmse = 16.7\nsamples = 21\nvalue = 77.7"] ;
52 -> 60 ;
61 [label="mse = 12.3\nsamples = 13\nvalue = 78.4"] ;
60 -> 61 ;
62 [label="mse = 21.6\nsamples = 8\nvalue = 76.8"] ;
60 -> 62 ;
63 [label="day <= 12.5\nmse = 70.5\nsamples = 360\nvalue = 78.1"] ;
1 -> 63 ;
64 [label="day <= 5.5\nmse = 146.2\nsamples = 145\nvalue = 76.1"] ;
63 -> 64 ;
65 [label="day <= 2.5\nmse = 13.3\nsamples = 56\nvalue = 77.5"] ;
64 -> 65 ;
66 [label="day <= 1.5\nmse = 17.0\nsamples = 19\nvalue = 76.3"] ;
65 -> 66 ;
67 [label="mse = 23.5\nsamples = 9\nvalue = 75.5"] ;
66 -> 67 ;
68 [label="mse = 10.9\nsamples = 10\nvalue = 76.9"] ;
66 -> 68 ;
69 [label="day <= 4.5\nmse = 10.1\nsamples = 37\nvalue = 78.1"] ;
65 -> 69 ;
70 [label="day <= 3.5\nmse = 8.6\nsamples = 25\nvalue = 78.4"] ;
69 -> 70 ;
71 [label="mse = 7.9\nsamples = 11\nvalue = 78.2"] ;
70 -> 71 ;
72 [label="mse = 9.1\nsamples = 14\nvalue = 78.5"] ;
70 -> 72 ;
73 [label="mse = 12.5\nsamples = 12\nvalue = 77.7"] ;
69 -> 73 ;
74 [label="day <= 6.5\nmse = 223.9\nsamples = 89\nvalue = 75.2"] ;
64 -> 74 ;
75 [label="mse = 1689.3\nsamples = 10\nvalue = 64.9"] ;
74 -> 75 ;
76 [label="day <= 10.5\nmse = 16.4\nsamples = 79\nvalue = 76.6"] ;
74 -> 76 ;
77 [label="day <= 7.5\nmse = 15.5\nsamples = 53\nvalue = 76.2"] ;
76 -> 77 ;
78 [label="mse = 9.8\nsamples = 11\nvalue = 77.0"] ;
77 -> 78 ;
79 [label="day <= 8.5\nmse = 16.8\nsamples = 42\nvalue = 76.0"] ;
77 -> 79 ;
80 [label="mse = 32.7\nsamples = 11\nvalue = 75.9"] ;
79 -> 80 ;
81 [label="day <= 9.5\nmse = 9.1\nsamples = 31\nvalue = 76.0"] ;
79 -> 81 ;
82 [label="mse = 10.7\nsamples = 14\nvalue = 76.0"] ;
81 -> 82 ;
83 [label="mse = 7.3\nsamples = 17\nvalue = 76.0"] ;
81 -> 83 ;
84 [label="day <= 11.5\nmse = 17.0\nsamples = 26\nvalue = 77.5"] ;
76 -> 84 ;
85 [label="mse = 8.2\nsamples = 14\nvalue = 78.4"] ;
84 -> 85 ;
86 [label="mse = 25.5\nsamples = 12\nvalue = 76.6"] ;
84 -> 86 ;
87 [label="day <= 21.5\nmse = 14.3\nsamples = 215\nvalue = 79.4"] ;
63 -> 87 ;
88 [label="day <= 16.5\nmse = 13.6\nsamples = 120\nvalue = 78.7"] ;
87 -> 88 ;
89 [label="day <= 14.5\nmse = 13.8\nsamples = 58\nvalue = 78.2"] ;
88 -> 89 ;
90 [label="day <= 13.5\nmse = 16.7\nsamples = 26\nvalue = 78.6"] ;
89 -> 90 ;
91 [label="mse = 16.1\nsamples = 14\nvalue = 78.0"] ;
90 -> 91 ;
92 [label="mse = 16.5\nsamples = 12\nvalue = 79.3"] ;
90 -> 92 ;
93 [label="day <= 15.5\nmse = 11.7\nsamples = 32\nvalue = 77.8"] ;
89 -> 93 ;
94 [label="mse = 13.4\nsamples = 17\nvalue = 77.4"] ;
93 -> 94 ;
95 [label="mse = 10.1\nsamples = 15\nvalue = 78.2"] ;
93 -> 95 ;
96 [label="day <= 19.5\nmse = 12.9\nsamples = 62\nvalue = 79.2"] ;
88 -> 96 ;
97 [label="day <= 18.5\nmse = 14.7\nsamples = 38\nvalue = 79.0"] ;
96 -> 97 ;
98 [label="day <= 17.5\nmse = 10.5\nsamples = 25\nvalue = 79.2"] ;
97 -> 98 ;
99 [label="mse = 12.5\nsamples = 15\nvalue = 79.2"] ;
98 -> 99 ;
100 [label="mse = 7.9\nsamples = 10\nvalue = 79.1"] ;
98 -> 100 ;
101 [label="mse = 21.0\nsamples = 13\nvalue = 78.8"] ;
97 -> 101 ;
102 [label="day <= 20.5\nmse = 10.2\nsamples = 24\nvalue = 79.4"] ;
96 -> 102 ;
103 [label="mse = 15.8\nsamples = 12\nvalue = 79.4"] ;
102 -> 103 ;
104 [label="mse = 5.1\nsamples = 12\nvalue = 79.4"] ;
102 -> 104 ;
105 [label="day <= 25.5\nmse = 13.8\nsamples = 95\nvalue = 80.3"] ;
87 -> 105 ;
106 [label="day <= 23.5\nmse = 12.8\nsamples = 49\nvalue = 79.8"] ;
105 -> 106 ;
107 [label="day <= 22.5\nmse = 10.1\nsamples = 26\nvalue = 80.8"] ;
106 -> 107 ;
108 [label="mse = 10.0\nsamples = 13\nvalue = 80.5"] ;
107 -> 108 ;
109 [label="mse = 10.1\nsamples = 13\nvalue = 81.0"] ;
107 -> 109 ;
110 [label="day <= 24.5\nmse = 13.7\nsamples = 23\nvalue = 79.0"] ;
106 -> 110 ;
111 [label="mse = 14.1\nsamples = 8\nvalue = 78.5"] ;
110 -> 111 ;
112 [label="mse = 13.2\nsamples = 15\nvalue = 79.3"] ;
110 -> 112 ;
113 [label="day <= 28.5\nmse = 14.3\nsamples = 46\nvalue = 80.8"] ;
105 -> 113 ;
114 [label="day <= 27.5\nmse = 15.2\nsamples = 43\nvalue = 80.9"] ;
113 -> 114 ;
115 [label="day <= 26.5\nmse = 14.8\nsamples = 29\nvalue = 80.8"] ;
114 -> 115 ;
116 [label="mse = 14.4\nsamples = 14\nvalue = 80.9"] ;
115 -> 116 ;
117 [label="mse = 15.4\nsamples = 15\nvalue = 80.6"] ;
115 -> 117 ;
118 [label="mse = 15.9\nsamples = 14\nvalue = 81.2"] ;
114 -> 118 ;
119 [label="mse = 4.1\nsamples = 3\nvalue = 80.0"] ;
113 -> 119 ;
120 [label="place <= 11.5\nmse = 98.2\nsamples = 3600\nvalue = 82.6"] ;
0 -> 120 [labeldistance=2.5, labelangle=-45, headlabel="False"] ;
121 [label="place <= 6.5\nmse = 53.5\nsamples = 3251\nvalue = 83.3"] ;
120 -> 121 ;
122 [label="place <= 3.5\nmse = 68.4\nsamples = 1463\nvalue = 84.1"] ;
121 -> 122 ;
123 [label="day <= 11.5\nmse = 125.8\nsamples = 354\nvalue = 81.6"] ;
122 -> 123 ;
124 [label="day <= 9.5\nmse = 292.1\nsamples = 138\nvalue = 79.6"] ;
123 -> 124 ;
125 [label="day <= 7.5\nmse = 10.2\nsamples = 115\nvalue = 81.1"] ;
124 -> 125 ;
126 [label="day <= 3.5\nmse = 9.3\nsamples = 90\nvalue = 81.0"] ;
125 -> 126 ;
127 [label="day <= 2.5\nmse = 9.0\nsamples = 35\nvalue = 81.4"] ;
126 -> 127 ;
128 [label="day <= 1.5\nmse = 9.8\nsamples = 24\nvalue = 81.5"] ;
127 -> 128 ;
129 [label="mse = 10.0\nsamples = 13\nvalue = 81.4"] ;
128 -> 129 ;
130 [label="mse = 9.5\nsamples = 11\nvalue = 81.5"] ;
128 -> 130 ;
131 [label="mse = 7.3\nsamples = 11\nvalue = 81.1"] ;
127 -> 131 ;
132 [label="day <= 6.5\nmse = 9.3\nsamples = 55\nvalue = 80.7"] ;
126 -> 132 ;
133 [label="day <= 5.5\nmse = 7.7\nsamples = 39\nvalue = 80.5"] ;
132 -> 133 ;
134 [label="day <= 4.5\nmse = 6.3\nsamples = 24\nvalue = 80.3"] ;
133 -> 134 ;
135 [label="mse = 5.1\nsamples = 13\nvalue = 80.3"] ;
134 -> 135 ;
136 [label="mse = 7.8\nsamples = 11\nvalue = 80.4"] ;
134 -> 136 ;
137 [label="mse = 9.7\nsamples = 15\nvalue = 80.7"] ;
133 -> 137 ;
138 [label="mse = 12.6\nsamples = 16\nvalue = 81.2"] ;
132 -> 138 ;
139 [label="day <= 8.5\nmse = 12.6\nsamples = 25\nvalue = 81.7"] ;
125 -> 139 ;
140 [label="mse = 18.4\nsamples = 11\nvalue = 82.3"] ;
139 -> 140 ;
141 [label="mse = 8.6\nsamples = 14\nvalue = 81.3"] ;
139 -> 141 ;
142 [label="day <= 10.5\nmse = 1516.2\nsamples = 23\nvalue = 72.4"] ;
124 -> 142 ;
143 [label="mse = 2598.0\nsamples = 12\nvalue = 65.9"] ;
142 -> 143 ;
144 [label="mse = 10.6\nsamples = 11\nvalue = 80.8"] ;
142 -> 144 ;
145 [label="day <= 17.5\nmse = 9.5\nsamples = 216\nvalue = 82.9"] ;
123 -> 145 ;
146 [label="day <= 12.5\nmse = 12.1\nsamples = 72\nvalue = 81.9"] ;
145 -> 146 ;
147 [label="mse = 6.9\nsamples = 9\nvalue = 83.1"] ;
146 -> 147 ;
148 [label="day <= 14.5\nmse = 12.5\nsamples = 63\nvalue = 81.7"] ;
146 -> 148 ;
149 [label="day <= 13.5\nmse = 12.4\nsamples = 28\nvalue = 81.2"] ;
148 -> 149 ;
150 [label="mse = 15.0\nsamples = 13\nvalue = 81.0"] ;
149 -> 150 ;
151 [label="mse = 10.3\nsamples = 15\nvalue = 81.3"] ;
149 -> 151 ;
152 [label="day <= 16.5\nmse = 12.2\nsamples = 35\nvalue = 82.2"] ;
148 -> 152 ;
153 [label="day <= 15.5\nmse = 13.3\nsamples = 23\nvalue = 82.1"] ;
152 -> 153 ;
154 [label="mse = 9.9\nsamples = 10\nvalue = 82.2"] ;
153 -> 154 ;
155 [label="mse = 15.3\nsamples = 13\nvalue = 82.1"] ;
153 -> 155 ;
156 [label="mse = 10.0\nsamples = 12\nvalue = 82.4"] ;
152 -> 156 ;
157 [label="day <= 30.5\nmse = 7.5\nsamples = 144\nvalue = 83.4"] ;
145 -> 157 ;
158 [label="day <= 19.5\nmse = 7.1\nsamples = 137\nvalue = 83.5"] ;
157 -> 158 ;
159 [label="day <= 18.5\nmse = 4.1\nsamples = 18\nvalue = 84.7"] ;
158 -> 159 ;
160 [label="mse = 1.9\nsamples = 11\nvalue = 84.3"] ;
159 -> 160 ;
161 [label="mse = 6.9\nsamples = 7\nvalue = 85.5"] ;
159 -> 161 ;
162 [label="day <= 24.5\nmse = 7.4\nsamples = 119\nvalue = 83.4"] ;
158 -> 162 ;
163 [label="day <= 20.5\nmse = 5.0\nsamples = 54\nvalue = 82.6"] ;
162 -> 163 ;
164 [label="mse = 1.4\nsamples = 14\nvalue = 83.2"] ;
163 -> 164 ;
165 [label="day <= 22.5\nmse = 5.9\nsamples = 40\nvalue = 82.4"] ;
163 -> 165 ;
166 [label="day <= 21.5\nmse = 2.8\nsamples = 20\nvalue = 81.9"] ;
165 -> 166 ;
167 [label="mse = 2.8\nsamples = 15\nvalue = 82.2"] ;
166 -> 167 ;
168 [label="mse = 2.0\nsamples = 5\nvalue = 81.1"] ;
166 -> 168 ;
169 [label="day <= 23.5\nmse = 8.3\nsamples = 20\nvalue = 82.9"] ;
165 -> 169 ;
170 [label="mse = 2.0\nsamples = 6\nvalue = 83.3"] ;
169 -> 170 ;
171 [label="mse = 10.2\nsamples = 14\nvalue = 82.8"] ;
169 -> 171 ;
172 [label="day <= 28.5\nmse = 8.4\nsamples = 65\nvalue = 84.0"] ;
162 -> 172 ;
173 [label="day <= 27.5\nmse = 7.2\nsamples = 45\nvalue = 83.8"] ;
172 -> 173 ;
174 [label="day <= 26.5\nmse = 9.3\nsamples = 33\nvalue = 84.0"] ;
173 -> 174 ;
175 [label="day <= 25.5\nmse = 7.8\nsamples = 19\nvalue = 83.7"] ;
174 -> 175 ;
176 [label="mse = 9.8\nsamples = 10\nvalue = 83.6"] ;
175 -> 176 ;
177 [label="mse = 5.9\nsamples = 9\nvalue = 83.8"] ;
175 -> 177 ;
178 [label="mse = 11.5\nsamples = 14\nvalue = 84.4"] ;
174 -> 178 ;
179 [label="mse = 2.4\nsamples = 12\nvalue = 83.3"] ;
173 -> 179 ;
180 [label="day <= 29.5\nmse = 10.6\nsamples = 20\nvalue = 84.4"] ;
172 -> 180 ;
181 [label="mse = 8.7\nsamples = 13\nvalue = 84.3"] ;
180 -> 181 ;
182 [label="mse = 13.7\nsamples = 7\nvalue = 84.6"] ;
180 -> 182 ;
183 [label="mse = 5.7\nsamples = 7\nvalue = 80.6"] ;
157 -> 183 ;
184 [label="place <= 5.5\nmse = 46.2\nsamples = 1109\nvalue = 85.0"] ;
122 -> 184 ;
185 [label="place <= 4.5\nmse = 4.4\nsamples = 726\nvalue = 85.5"] ;
184 -> 185 ;
186 [label="day <= 17.5\nmse = 4.6\nsamples = 346\nvalue = 84.6"] ;
185 -> 186 ;
187 [label="day <= 6.5\nmse = 5.3\nsamples = 193\nvalue = 84.2"] ;
186 -> 187 ;
188 [label="day <= 3.5\nmse = 5.5\nsamples = 65\nvalue = 83.6"] ;
187 -> 188 ;
189 [label="day <= 1.5\nmse = 6.4\nsamples = 35\nvalue = 83.3"] ;
188 -> 189 ;
190 [label="mse = 3.9\nsamples = 12\nvalue = 83.1"] ;
189 -> 190 ;
191 [label="day <= 2.5\nmse = 7.9\nsamples = 23\nvalue = 83.5"] ;
189 -> 191 ;
192 [label="mse = 8.7\nsamples = 14\nvalue = 83.7"] ;
191 -> 192 ;
193 [label="mse = 6.6\nsamples = 9\nvalue = 83.1"] ;
191 -> 193 ;
194 [label="day <= 4.5\nmse = 4.3\nsamples = 30\nvalue = 83.9"] ;
188 -> 194 ;
195 [label="mse = 7.2\nsamples = 11\nvalue = 84.5"] ;
194 -> 195 ;
196 [label="day <= 5.5\nmse = 2.1\nsamples = 19\nvalue = 83.6"] ;
194 -> 196 ;
197 [label="mse = 3.1\nsamples = 11\nvalue = 83.7"] ;
196 -> 197 ;
198 [label="mse = 0.7\nsamples = 8\nvalue = 83.4"] ;
196 -> 198 ;
199 [label="day <= 7.5\nmse = 4.9\nsamples = 128\nvalue = 84.4"] ;
187 -> 199 ;
200 [label="mse = 6.1\nsamples = 12\nvalue = 85.4"] ;
199 -> 200 ;
201 [label="day <= 9.5\nmse = 4.6\nsamples = 116\nvalue = 84.3"] ;
199 -> 201 ;
202 [label="day <= 8.5\nmse = 6.2\nsamples = 22\nvalue = 83.6"] ;
201 -> 202 ;
203 [label="mse = 7.6\nsamples = 11\nvalue = 84.2"] ;
202 -> 203 ;
204 [label="mse = 4.6\nsamples = 11\nvalue = 83.2"] ;
202 -> 204 ;
205 [label="day <= 10.5\nmse = 4.1\nsamples = 94\nvalue = 84.5"] ;
201 -> 205 ;
206 [label="mse = 4.5\nsamples = 12\nvalue = 85.1"] ;
205 -> 206 ;
207 [label="day <= 13.5\nmse = 4.0\nsamples = 82\nvalue = 84.4"] ;
205 -> 207 ;
208 [label="day <= 11.5\nmse = 5.2\nsamples = 33\nvalue = 84.6"] ;
207 -> 208 ;
209 [label="mse = 5.0\nsamples = 13\nvalue = 84.3"] ;
208 -> 209 ;
210 [label="day <= 12.5\nmse = 5.3\nsamples = 20\nvalue = 84.8"] ;
208 -> 210 ;
211 [label="mse = 7.3\nsamples = 9\nvalue = 84.9"] ;
210 -> 211 ;
212 [label="mse = 3.8\nsamples = 11\nvalue = 84.7"] ;
210 -> 212 ;
213 [label="day <= 15.5\nmse = 3.2\nsamples = 49\nvalue = 84.3"] ;
207 -> 213 ;
214 [label="day <= 14.5\nmse = 2.1\nsamples = 25\nvalue = 84.2"] ;
213 -> 214 ;
215 [label="mse = 1.8\nsamples = 13\nvalue = 84.3"] ;
214 -> 215 ;
216 [label="mse = 2.5\nsamples = 12\nvalue = 84.1"] ;
214 -> 216 ;
217 [label="day <= 16.5\nmse = 4.3\nsamples = 24\nvalue = 84.5"] ;
213 -> 217 ;
218 [label="mse = 3.5\nsamples = 10\nvalue = 84.5"] ;
217 -> 218 ;
219 [label="mse = 5.0\nsamples = 14\nvalue = 84.4"] ;
217 -> 219 ;
220 [label="day <= 24.5\nmse = 3.4\nsamples = 153\nvalue = 85.2"] ;
186 -> 220 ;
221 [label="day <= 21.5\nmse = 3.4\nsamples = 85\nvalue = 85.0"] ;
220 -> 221 ;
222 [label="day <= 19.5\nmse = 4.2\nsamples = 49\nvalue = 85.2"] ;
221 -> 222 ;
223 [label="day <= 18.5\nmse = 4.2\nsamples = 24\nvalue = 84.8"] ;
222 -> 223 ;
224 [label="mse = 5.6\nsamples = 10\nvalue = 85.0"] ;
223 -> 224 ;
225 [label="mse = 2.7\nsamples = 14\nvalue = 84.5"] ;
223 -> 225 ;
226 [label="day <= 20.5\nmse = 3.7\nsamples = 25\nvalue = 85.7"] ;
222 -> 226 ;
227 [label="mse = 3.5\nsamples = 14\nvalue = 85.4"] ;
226 -> 227 ;
228 [label="mse = 3.7\nsamples = 11\nvalue = 86.0"] ;
226 -> 228 ;
229 [label="day <= 22.5\nmse = 2.3\nsamples = 36\nvalue = 84.7"] ;
221 -> 229 ;
230 [label="mse = 3.0\nsamples = 11\nvalue = 84.5"] ;
229 -> 230 ;
231 [label="day <= 23.5\nmse = 1.9\nsamples = 25\nvalue = 84.7"] ;
229 -> 231 ;
232 [label="mse = 1.5\nsamples = 10\nvalue = 84.8"] ;
231 -> 232 ;
233 [label="mse = 2.2\nsamples = 15\nvalue = 84.6"] ;
231 -> 233 ;
234 [label="day <= 27.5\nmse = 3.3\nsamples = 68\nvalue = 85.4"] ;
220 -> 234 ;
235 [label="day <= 26.5\nmse = 4.1\nsamples = 38\nvalue = 85.6"] ;
234 -> 235 ;
236 [label="day <= 25.5\nmse = 2.8\nsamples = 26\nvalue = 85.3"] ;
235 -> 236 ;
237 [label="mse = 3.3\nsamples = 12\nvalue = 85.2"] ;
236 -> 237 ;
238 [label="mse = 2.4\nsamples = 14\nvalue = 85.5"] ;
236 -> 238 ;
239 [label="mse = 6.7\nsamples = 12\nvalue = 86.0"] ;
235 -> 239 ;
240 [label="day <= 28.5\nmse = 2.1\nsamples = 30\nvalue = 85.1"] ;
234 -> 240 ;
241 [label="mse = 3.8\nsamples = 8\nvalue = 84.4"] ;
240 -> 241 ;
242 [label="day <= 29.5\nmse = 1.0\nsamples = 22\nvalue = 85.5"] ;
240 -> 242 ;
243 [label="mse = 0.7\nsamples = 9\nvalue = 85.7"] ;
242 -> 243 ;
244 [label="mse = 1.2\nsamples = 13\nvalue = 85.2"] ;
242 -> 244 ;
245 [label="day <= 18.5\nmse = 3.1\nsamples = 380\nvalue = 86.2"] ;
185 -> 245 ;
246 [label="day <= 6.5\nmse = 2.8\nsamples = 206\nvalue = 85.7"] ;
245 -> 246 ;
247 [label="day <= 1.5\nmse = 1.8\nsamples = 66\nvalue = 85.2"] ;
246 -> 247 ;
248 [label="mse = 1.3\nsamples = 16\nvalue = 84.6"] ;
247 -> 248 ;
249 [label="day <= 2.5\nmse = 1.8\nsamples = 50\nvalue = 85.4"] ;
247 -> 249 ;
250 [label="mse = 1.4\nsamples = 10\nvalue = 85.3"] ;
249 -> 250 ;
251 [label="day <= 3.5\nmse = 1.9\nsamples = 40\nvalue = 85.4"] ;
249 -> 251 ;
252 [label="mse = 2.2\nsamples = 11\nvalue = 85.5"] ;
251 -> 252 ;
253 [label="day <= 4.5\nmse = 1.8\nsamples = 29\nvalue = 85.4"] ;
251 -> 253 ;
254 [label="mse = 1.0\nsamples = 9\nvalue = 85.3"] ;
253 -> 254 ;
255 [label="day <= 5.5\nmse = 2.2\nsamples = 20\nvalue = 85.4"] ;
253 -> 255 ;
256 [label="mse = 3.1\nsamples = 10\nvalue = 85.4"] ;
255 -> 256 ;
257 [label="mse = 1.1\nsamples = 10\nvalue = 85.5"] ;
255 -> 257 ;
258 [label="day <= 17.5\nmse = 3.1\nsamples = 140\nvalue = 85.9"] ;
246 -> 258 ;
259 [label="day <= 8.5\nmse = 2.2\nsamples = 131\nvalue = 86.0"] ;
258 -> 259 ;
260 [label="day <= 7.5\nmse = 3.0\nsamples = 31\nvalue = 86.3"] ;
259 -> 260 ;
261 [label="mse = 2.8\nsamples = 16\nvalue = 85.9"] ;
260 -> 261 ;
262 [label="mse = 2.7\nsamples = 15\nvalue = 86.8"] ;
260 -> 262 ;
263 [label="day <= 12.5\nmse = 2.0\nsamples = 100\nvalue = 85.9"] ;
259 -> 263 ;
264 [label="day <= 11.5\nmse = 1.9\nsamples = 42\nvalue = 85.7"] ;
263 -> 264 ;
265 [label="day <= 10.5\nmse = 1.7\nsamples = 34\nvalue = 85.8"] ;
264 -> 265 ;
266 [label="day <= 9.5\nmse = 1.3\nsamples = 23\nvalue = 85.6"] ;
265 -> 266 ;
267 [label="mse = 2.7\nsamples = 8\nvalue = 85.7"] ;
266 -> 267 ;
268 [label="mse = 0.5\nsamples = 15\nvalue = 85.6"] ;
266 -> 268 ;
269 [label="mse = 2.2\nsamples = 11\nvalue = 86.2"] ;
265 -> 269 ;
270 [label="mse = 2.0\nsamples = 8\nvalue = 85.2"] ;
264 -> 270 ;
271 [label="day <= 13.5\nmse = 2.0\nsamples = 58\nvalue = 86.1"] ;
263 -> 271 ;
272 [label="mse = 1.6\nsamples = 11\nvalue = 86.3"] ;
271 -> 272 ;
273 [label="day <= 15.5\nmse = 2.1\nsamples = 47\nvalue = 86.0"] ;
271 -> 273 ;
274 [label="day <= 14.5\nmse = 1.8\nsamples = 21\nvalue = 85.9"] ;
273 -> 274 ;
275 [label="mse = 2.7\nsamples = 11\nvalue = 86.1"] ;
274 -> 275 ;
276 [label="mse = 0.9\nsamples = 10\nvalue = 85.8"] ;
274 -> 276 ;
277 [label="day <= 16.5\nmse = 2.3\nsamples = 26\nvalue = 86.1"] ;
273 -> 277 ;
278 [label="mse = 3.1\nsamples = 13\nvalue = 86.1"] ;
277 -> 278 ;
279 [label="mse = 1.5\nsamples = 13\nvalue = 86.0"] ;
277 -> 279 ;
280 [label="mse = 15.9\nsamples = 9\nvalue = 84.2"] ;
258 -> 280 ;
281 [label="day <= 30.5\nmse = 2.6\nsamples = 174\nvalue = 86.9"] ;
245 -> 281 ;
282 [label="day <= 29.5\nmse = 1.9\nsamples = 161\nvalue = 86.9"] ;
281 -> 282 ;
283 [label="day <= 19.5\nmse = 1.8\nsamples = 147\nvalue = 86.9"] ;
282 -> 283 ;
284 [label="mse = 2.8\nsamples = 13\nvalue = 87.1"] ;
283 -> 284 ;
285 [label="day <= 22.5\nmse = 1.7\nsamples = 134\nvalue = 86.9"] ;
283 -> 285 ;
286 [label="day <= 21.5\nmse = 1.5\nsamples = 43\nvalue = 86.7"] ;
285 -> 286 ;
287 [label="day <= 20.5\nmse = 1.1\nsamples = 25\nvalue = 86.9"] ;
286 -> 287 ;
288 [label="mse = 1.5\nsamples = 11\nvalue = 86.6"] ;
287 -> 288 ;
289 [label="mse = 0.5\nsamples = 14\nvalue = 87.2"] ;
287 -> 289 ;
290 [label="mse = 1.9\nsamples = 18\nvalue = 86.4"] ;
286 -> 290 ;
291 [label="day <= 24.5\nmse = 1.7\nsamples = 91\nvalue = 86.9"] ;
285 -> 291 ;
292 [label="day <= 23.5\nmse = 1.4\nsamples = 25\nvalue = 87.1"] ;
291 -> 292 ;
293 [label="mse = 1.4\nsamples = 9\nvalue = 87.0"] ;
292 -> 293 ;
294 [label="mse = 1.4\nsamples = 16\nvalue = 87.1"] ;
292 -> 294 ;
295 [label="day <= 25.5\nmse = 1.8\nsamples = 66\nvalue = 86.9"] ;
291 -> 295 ;
296 [label="mse = 1.3\nsamples = 13\nvalue = 86.5"] ;
295 -> 296 ;
297 [label="day <= 26.5\nmse = 1.9\nsamples = 53\nvalue = 87.0"] ;
295 -> 297 ;
298 [label="mse = 0.9\nsamples = 12\nvalue = 87.2"] ;
297 -> 298 ;
299 [label="day <= 27.5\nmse = 2.2\nsamples = 41\nvalue = 86.9"] ;
297 -> 299 ;
300 [label="mse = 1.8\nsamples = 12\nvalue = 86.6"] ;
299 -> 300 ;
301 [label="day <= 28.5\nmse = 2.3\nsamples = 29\nvalue = 87.0"] ;
299 -> 301 ;
302 [label="mse = 2.8\nsamples = 16\nvalue = 87.0"] ;
301 -> 302 ;
303 [label="mse = 1.6\nsamples = 13\nvalue = 87.0"] ;
301 -> 303 ;
304 [label="mse = 2.7\nsamples = 14\nvalue = 87.5"] ;
282 -> 304 ;
305 [label="mse = 9.2\nsamples = 13\nvalue = 86.3"] ;
281 -> 305 ;
306 [label="day <= 14.5\nmse = 125.3\nsamples = 383\nvalue = 84.0"] ;
184 -> 306 ;
307 [label="day <= 8.5\nmse = 7.1\nsamples = 189\nvalue = 85.9"] ;
306 -> 307 ;
308 [label="day <= 2.5\nmse = 4.7\nsamples = 109\nvalue = 86.5"] ;
307 -> 308 ;
309 [label="day <= 1.5\nmse = 5.3\nsamples = 34\nvalue = 86.3"] ;
308 -> 309 ;
310 [label="mse = 6.2\nsamples = 17\nvalue = 86.3"] ;
309 -> 310 ;
311 [label="mse = 4.5\nsamples = 17\nvalue = 86.4"] ;
309 -> 311 ;
312 [label="day <= 4.5\nmse = 4.5\nsamples = 75\nvalue = 86.5"] ;
308 -> 312 ;
313 [label="day <= 3.5\nmse = 3.2\nsamples = 29\nvalue = 86.7"] ;
312 -> 313 ;
314 [label="mse = 3.0\nsamples = 16\nvalue = 86.6"] ;
313 -> 314 ;
315 [label="mse = 3.4\nsamples = 13\nvalue = 86.8"] ;
313 -> 315 ;
316 [label="day <= 6.5\nmse = 5.2\nsamples = 46\nvalue = 86.4"] ;
312 -> 316 ;
317 [label="day <= 5.5\nmse = 4.9\nsamples = 26\nvalue = 86.5"] ;
316 -> 317 ;
318 [label="mse = 3.8\nsamples = 15\nvalue = 86.3"] ;
317 -> 318 ;
319 [label="mse = 6.3\nsamples = 11\nvalue = 86.8"] ;
317 -> 319 ;
320 [label="day <= 7.5\nmse = 5.5\nsamples = 20\nvalue = 86.3"] ;
316 -> 320 ;
321 [label="mse = 5.6\nsamples = 9\nvalue = 86.0"] ;
320 -> 321 ;
322 [label="mse = 5.3\nsamples = 11\nvalue = 86.5"] ;
320 -> 322 ;
323 [label="day <= 11.5\nmse = 9.3\nsamples = 80\nvalue = 85.2"] ;
307 -> 323 ;
324 [label="day <= 10.5\nmse = 12.1\nsamples = 37\nvalue = 85.5"] ;
323 -> 324 ;
325 [label="day <= 9.5\nmse = 11.4\nsamples = 29\nvalue = 85.1"] ;
324 -> 325 ;
326 [label="mse = 8.4\nsamples = 18\nvalue = 85.2"] ;
325 -> 326 ;
327 [label="mse = 17.5\nsamples = 11\nvalue = 84.9"] ;
325 -> 327 ;
328 [label="mse = 10.9\nsamples = 8\nvalue = 87.4"] ;
324 -> 328 ;
329 [label="day <= 13.5\nmse = 6.9\nsamples = 43\nvalue = 85.0"] ;
323 -> 329 ;
330 [label="day <= 12.5\nmse = 7.2\nsamples = 33\nvalue = 84.9"] ;
329 -> 330 ;
331 [label="mse = 5.5\nsamples = 16\nvalue = 85.0"] ;
330 -> 331 ;
332 [label="mse = 8.5\nsamples = 17\nvalue = 84.9"] ;
330 -> 332 ;
333 [label="mse = 5.7\nsamples = 10\nvalue = 85.1"] ;
329 -> 333 ;
334 [label="day <= 18.5\nmse = 238.3\nsamples = 194\nvalue = 82.1"] ;
306 -> 334 ;
335 [label="day <= 17.5\nmse = 935.0\nsamples = 46\nvalue = 78.4"] ;
334 -> 335 ;
336 [label="day <= 16.5\nmse = 8.9\nsamples = 32\nvalue = 83.4"] ;
335 -> 336 ;
337 [label="day <= 15.5\nmse = 8.2\nsamples = 24\nvalue = 83.9"] ;
336 -> 337 ;
338 [label="mse = 11.0\nsamples = 11\nvalue = 83.7"] ;
337 -> 338 ;
339 [label="mse = 6.5\nsamples = 13\nvalue = 84.0"] ;
337 -> 339 ;
340 [label="mse = 7.6\nsamples = 8\nvalue = 81.7"] ;
336 -> 340 ;
341 [label="mse = 3032.9\nsamples = 14\nvalue = 66.0"] ;
335 -> 341 ;
342 [label="day <= 22.5\nmse = 6.6\nsamples = 148\nvalue = 83.3"] ;
334 -> 342 ;
343 [label="day <= 20.5\nmse = 8.4\nsamples = 51\nvalue = 84.1"] ;
342 -> 343 ;
344 [label="day <= 19.5\nmse = 9.5\nsamples = 24\nvalue = 83.7"] ;
343 -> 344 ;
345 [label="mse = 9.4\nsamples = 10\nvalue = 84.2"] ;
344 -> 345 ;
346 [label="mse = 9.2\nsamples = 14\nvalue = 83.3"] ;
344 -> 346 ;
347 [label="day <= 21.5\nmse = 7.0\nsamples = 27\nvalue = 84.5"] ;
343 -> 347 ;
348 [label="mse = 6.6\nsamples = 14\nvalue = 84.9"] ;
347 -> 348 ;
349 [label="mse = 7.0\nsamples = 13\nvalue = 84.0"] ;
347 -> 349 ;
350 [label="day <= 25.5\nmse = 5.1\nsamples = 97\nvalue = 82.8"] ;
342 -> 350 ;
351 [label="day <= 24.5\nmse = 6.3\nsamples = 41\nvalue = 82.5"] ;
350 -> 351 ;
352 [label="day <= 23.5\nmse = 7.2\nsamples = 27\nvalue = 82.6"] ;
351 -> 352 ;
353 [label="mse = 8.7\nsamples = 14\nvalue = 82.6"] ;
352 -> 353 ;
354 [label="mse = 5.3\nsamples = 13\nvalue = 82.7"] ;
352 -> 354 ;
355 [label="mse = 4.7\nsamples = 14\nvalue = 82.3"] ;
351 -> 355 ;
356 [label="day <= 26.5\nmse = 3.9\nsamples = 56\nvalue = 83.1"] ;
350 -> 356 ;
357 [label="mse = 2.9\nsamples = 15\nvalue = 83.6"] ;
356 -> 357 ;
358 [label="day <= 29.5\nmse = 4.1\nsamples = 41\nvalue = 82.9"] ;
356 -> 358 ;
359 [label="day <= 28.5\nmse = 4.2\nsamples = 34\nvalue = 82.8"] ;
358 -> 359 ;
360 [label="day <= 27.5\nmse = 3.6\nsamples = 24\nvalue = 83.0"] ;
359 -> 360 ;
361 [label="mse = 3.9\nsamples = 14\nvalue = 83.0"] ;
360 -> 361 ;
362 [label="mse = 3.1\nsamples = 10\nvalue = 82.9"] ;
360 -> 362 ;
363 [label="mse = 5.6\nsamples = 10\nvalue = 82.4"] ;
359 -> 363 ;
364 [label="mse = 3.6\nsamples = 7\nvalue = 83.2"] ;
358 -> 364 ;
365 [label="place <= 9.5\nmse = 40.5\nsamples = 1788\nvalue = 82.6"] ;
121 -> 365 ;
366 [label="day <= 23.5\nmse = 22.5\nsamples = 1111\nvalue = 82.2"] ;
365 -> 366 ;
367 [label="place <= 8.5\nmse = 3.6\nsamples = 821\nvalue = 82.3"] ;
366 -> 367 ;
368 [label="day <= 2.5\nmse = 3.8\nsamples = 539\nvalue = 82.4"] ;
367 -> 368 ;
369 [label="day <= 1.5\nmse = 3.1\nsamples = 42\nvalue = 82.0"] ;
368 -> 369 ;
370 [label="place <= 7.5\nmse = 2.2\nsamples = 20\nvalue = 83.0"] ;
369 -> 370 ;
371 [label="mse = 4.2\nsamples = 9\nvalue = 82.9"] ;
370 -> 371 ;
372 [label="mse = 1.0\nsamples = 11\nvalue = 83.0"] ;
370 -> 372 ;
373 [label="place <= 7.5\nmse = 2.5\nsamples = 22\nvalue = 81.3"] ;
369 -> 373 ;
374 [label="mse = 1.3\nsamples = 11\nvalue = 81.5"] ;
373 -> 374 ;
375 [label="mse = 3.4\nsamples = 11\nvalue = 81.2"] ;
373 -> 375 ;
376 [label="day <= 6.5\nmse = 3.8\nsamples = 497\nvalue = 82.5"] ;
368 -> 376 ;
377 [label="day <= 4.5\nmse = 6.6\nsamples = 92\nvalue = 82.8"] ;
376 -> 377 ;
378 [label="place <= 7.5\nmse = 6.3\nsamples = 50\nvalue = 82.5"] ;
377 -> 378 ;
379 [label="day <= 3.5\nmse = 9.1\nsamples = 25\nvalue = 82.4"] ;
378 -> 379 ;
380 [label="mse = 7.0\nsamples = 13\nvalue = 83.0"] ;
379 -> 380 ;
381 [label="mse = 10.8\nsamples = 12\nvalue = 81.5"] ;
379 -> 381 ;
382 [label="day <= 3.5\nmse = 4.5\nsamples = 25\nvalue = 82.6"] ;
378 -> 382 ;
383 [label="mse = 3.4\nsamples = 13\nvalue = 82.2"] ;
382 -> 383 ;
384 [label="mse = 5.1\nsamples = 12\nvalue = 82.9"] ;
382 -> 384 ;
385 [label="place <= 7.5\nmse = 6.6\nsamples = 42\nvalue = 83.1"] ;
377 -> 385 ;
386 [label="day <= 5.5\nmse = 7.9\nsamples = 21\nvalue = 83.5"] ;
385 -> 386 ;
387 [label="mse = 6.1\nsamples = 8\nvalue = 83.3"] ;
386 -> 387 ;
388 [label="mse = 9.4\nsamples = 13\nvalue = 83.7"] ;
386 -> 388 ;
389 [label="day <= 5.5\nmse = 5.2\nsamples = 21\nvalue = 82.7"] ;
385 -> 389 ;
390 [label="mse = 2.6\nsamples = 9\nvalue = 82.7"] ;
389 -> 390 ;
391 [label="mse = 7.2\nsamples = 12\nvalue = 82.7"] ;
389 -> 391 ;
392 [label="day <= 7.5\nmse = 3.2\nsamples = 405\nvalue = 82.4"] ;
376 -> 392 ;
393 [label="place <= 7.5\nmse = 5.4\nsamples = 20\nvalue = 81.8"] ;
392 -> 393 ;
394 [label="mse = 5.5\nsamples = 10\nvalue = 82.3"] ;
393 -> 394 ;
395 [label="mse = 4.9\nsamples = 10\nvalue = 81.3"] ;
393 -> 395 ;
396 [label="day <= 20.5\nmse = 3.1\nsamples = 385\nvalue = 82.4"] ;
392 -> 396 ;
397 [label="day <= 17.5\nmse = 3.2\nsamples = 305\nvalue = 82.5"] ;
396 -> 397 ;
398 [label="day <= 16.5\nmse = 3.4\nsamples = 237\nvalue = 82.4"] ;
397 -> 398 ;
399 [label="day <= 15.5\nmse = 3.3\nsamples = 217\nvalue = 82.4"] ;
398 -> 399 ;
400 [label="place <= 7.5\nmse = 3.2\nsamples = 197\nvalue = 82.4"] ;
399 -> 400 ;
401 [label="day <= 14.5\nmse = 3.9\nsamples = 102\nvalue = 82.5"] ;
400 -> 401 ;
402 [label="day <= 9.5\nmse = 3.8\nsamples = 91\nvalue = 82.5"] ;
401 -> 402 ;
403 [label="day <= 8.5\nmse = 5.7\nsamples = 29\nvalue = 82.3"] ;
402 -> 403 ;
404 [label="mse = 5.1\nsamples = 14\nvalue = 82.3"] ;
403 -> 404 ;
405 [label="mse = 6.2\nsamples = 15\nvalue = 82.4"] ;
403 -> 405 ;
406 [label="day <= 10.5\nmse = 3.0\nsamples = 62\nvalue = 82.6"] ;
402 -> 406 ;
407 [label="mse = 3.0\nsamples = 15\nvalue = 83.0"] ;
406 -> 407 ;
408 [label="day <= 11.5\nmse = 2.9\nsamples = 47\nvalue = 82.5"] ;
406 -> 408 ;
409 [label="mse = 2.2\nsamples = 9\nvalue = 82.1"] ;
408 -> 409 ;
410 [label="day <= 13.5\nmse = 3.1\nsamples = 38\nvalue = 82.5"] ;
408 -> 410 ;
411 [label="day <= 12.5\nmse = 2.4\nsamples = 23\nvalue = 82.6"] ;
410 -> 411 ;
412 [label="mse = 2.6\nsamples = 12\nvalue = 82.5"] ;
411 -> 412 ;
413 [label="mse = 2.2\nsamples = 11\nvalue = 82.7"] ;
411 -> 413 ;
414 [label="mse = 3.9\nsamples = 15\nvalue = 82.4"] ;
410 -> 414 ;
415 [label="mse = 4.0\nsamples = 11\nvalue = 82.0"] ;
401 -> 415 ;
416 [label="day <= 11.5\nmse = 2.5\nsamples = 95\nvalue = 82.3"] ;
400 -> 416 ;
417 [label="day <= 10.5\nmse = 2.6\nsamples = 44\nvalue = 82.1"] ;
416 -> 417 ;
418 [label="day <= 9.5\nmse = 2.9\nsamples = 31\nvalue = 82.3"] ;
417 -> 418 ;
419 [label="day <= 8.5\nmse = 3.4\nsamples = 22\nvalue = 82.3"] ;
418 -> 419 ;
420 [label="mse = 4.0\nsamples = 12\nvalue = 82.3"] ;
419 -> 420 ;
421 [label="mse = 2.2\nsamples = 10\nvalue = 82.2"] ;
419 -> 421 ;
422 [label="mse = 1.9\nsamples = 9\nvalue = 82.4"] ;
418 -> 422 ;
423 [label="mse = 1.7\nsamples = 13\nvalue = 81.6"] ;
417 -> 423 ;
424 [label="day <= 14.5\nmse = 2.4\nsamples = 51\nvalue = 82.4"] ;
416 -> 424 ;
425 [label="day <= 13.5\nmse = 2.1\nsamples = 41\nvalue = 82.5"] ;
424 -> 425 ;
426 [label="day <= 12.5\nmse = 2.0\nsamples = 26\nvalue = 82.3"] ;
425 -> 426 ;
427 [label="mse = 1.6\nsamples = 10\nvalue = 82.4"] ;
426 -> 427 ;
428 [label="mse = 2.3\nsamples = 16\nvalue = 82.3"] ;
426 -> 428 ;
429 [label="mse = 2.2\nsamples = 15\nvalue = 82.7"] ;
425 -> 429 ;
430 [label="mse = 3.3\nsamples = 10\nvalue = 82.1"] ;
424 -> 430 ;
431 [label="place <= 7.5\nmse = 3.2\nsamples = 20\nvalue = 82.9"] ;
399 -> 431 ;
432 [label="mse = 5.7\nsamples = 10\nvalue = 82.4"] ;
431 -> 432 ;
433 [label="mse = 1.2\nsamples = 10\nvalue = 83.3"] ;
431 -> 433 ;
434 [label="place <= 7.5\nmse = 4.2\nsamples = 20\nvalue = 81.9"] ;
398 -> 434 ;
435 [label="mse = 2.8\nsamples = 10\nvalue = 81.4"] ;
434 -> 435 ;
436 [label="mse = 5.1\nsamples = 10\nvalue = 82.4"] ;
434 -> 436 ;
437 [label="day <= 18.5\nmse = 2.4\nsamples = 68\nvalue = 82.7"] ;
397 -> 437 ;
438 [label="place <= 7.5\nmse = 2.8\nsamples = 22\nvalue = 83.3"] ;
437 -> 438 ;
439 [label="mse = 2.1\nsamples = 12\nvalue = 83.0"] ;
438 -> 439 ;
440 [label="mse = 3.4\nsamples = 10\nvalue = 83.7"] ;
438 -> 440 ;
441 [label="day <= 19.5\nmse = 2.0\nsamples = 46\nvalue = 82.5"] ;
437 -> 441 ;
442 [label="place <= 7.5\nmse = 2.0\nsamples = 17\nvalue = 82.6"] ;
441 -> 442 ;
443 [label="mse = 1.9\nsamples = 8\nvalue = 83.0"] ;
442 -> 443 ;
444 [label="mse = 1.9\nsamples = 9\nvalue = 82.3"] ;
442 -> 444 ;
445 [label="place <= 7.5\nmse = 1.9\nsamples = 29\nvalue = 82.4"] ;
441 -> 445 ;
446 [label="mse = 1.7\nsamples = 18\nvalue = 82.3"] ;
445 -> 446 ;
447 [label="mse = 2.2\nsamples = 11\nvalue = 82.5"] ;
445 -> 447 ;
448 [label="place <= 7.5\nmse = 2.8\nsamples = 80\nvalue = 82.2"] ;
396 -> 448 ;
449 [label="day <= 21.5\nmse = 2.3\nsamples = 39\nvalue = 82.6"] ;
448 -> 449 ;
450 [label="mse = 2.2\nsamples = 11\nvalue = 82.8"] ;
449 -> 450 ;
451 [label="day <= 22.5\nmse = 2.3\nsamples = 28\nvalue = 82.6"] ;
449 -> 451 ;
452 [label="mse = 3.4\nsamples = 12\nvalue = 82.5"] ;
451 -> 452 ;
453 [label="mse = 1.4\nsamples = 16\nvalue = 82.6"] ;
451 -> 453 ;
454 [label="day <= 21.5\nmse = 3.0\nsamples = 41\nvalue = 81.9"] ;
448 -> 454 ;
455 [label="mse = 2.5\nsamples = 15\nvalue = 81.8"] ;
454 -> 455 ;
456 [label="day <= 22.5\nmse = 3.2\nsamples = 26\nvalue = 81.9"] ;
454 -> 456 ;
457 [label="mse = 3.2\nsamples = 10\nvalue = 82.0"] ;
456 -> 457 ;
458 [label="mse = 3.3\nsamples = 16\nvalue = 81.9"] ;
456 -> 458 ;
459 [label="day <= 22.5\nmse = 3.1\nsamples = 282\nvalue = 82.0"] ;
367 -> 459 ;
460 [label="day <= 7.5\nmse = 3.0\nsamples = 271\nvalue = 82.0"] ;
459 -> 460 ;
461 [label="day <= 2.5\nmse = 2.4\nsamples = 91\nvalue = 81.8"] ;
460 -> 461 ;
462 [label="day <= 1.5\nmse = 2.4\nsamples = 23\nvalue = 82.1"] ;
461 -> 462 ;
463 [label="mse = 3.7\nsamples = 10\nvalue = 82.2"] ;
462 -> 463 ;
464 [label="mse = 1.3\nsamples = 13\nvalue = 81.9"] ;
462 -> 464 ;
465 [label="day <= 3.5\nmse = 2.4\nsamples = 68\nvalue = 81.7"] ;
461 -> 465 ;
466 [label="mse = 2.1\nsamples = 15\nvalue = 81.2"] ;
465 -> 466 ;
467 [label="day <= 6.5\nmse = 2.3\nsamples = 53\nvalue = 81.8"] ;
465 -> 467 ;
468 [label="day <= 5.5\nmse = 2.0\nsamples = 41\nvalue = 81.9"] ;
467 -> 468 ;
469 [label="day <= 4.5\nmse = 1.6\nsamples = 30\nvalue = 81.9"] ;
468 -> 469 ;
470 [label="mse = 1.5\nsamples = 16\nvalue = 81.9"] ;
469 -> 470 ;
471 [label="mse = 1.7\nsamples = 14\nvalue = 81.9"] ;
469 -> 471 ;
472 [label="mse = 3.1\nsamples = 11\nvalue = 81.9"] ;
468 -> 472 ;
473 [label="mse = 3.5\nsamples = 12\nvalue = 81.5"] ;
467 -> 473 ;
474 [label="day <= 18.5\nmse = 3.3\nsamples = 180\nvalue = 82.1"] ;
460 -> 474 ;
475 [label="day <= 11.5\nmse = 3.2\nsamples = 128\nvalue = 82.2"] ;
474 -> 475 ;
476 [label="day <= 8.5\nmse = 3.3\nsamples = 50\nvalue = 82.1"] ;
475 -> 476 ;
477 [label="mse = 2.1\nsamples = 13\nvalue = 82.6"] ;
476 -> 477 ;
478 [label="day <= 9.5\nmse = 3.6\nsamples = 37\nvalue = 81.8"] ;
476 -> 478 ;
479 [label="mse = 4.7\nsamples = 12\nvalue = 81.3"] ;
478 -> 479 ;
480 [label="day <= 10.5\nmse = 3.1\nsamples = 25\nvalue = 82.0"] ;
478 -> 480 ;
481 [label="mse = 0.9\nsamples = 8\nvalue = 82.6"] ;
480 -> 481 ;
482 [label="mse = 4.0\nsamples = 17\nvalue = 81.7"] ;
480 -> 482 ;
483 [label="day <= 16.5\nmse = 3.0\nsamples = 78\nvalue = 82.3"] ;
475 -> 483 ;
484 [label="day <= 12.5\nmse = 2.8\nsamples = 55\nvalue = 82.3"] ;
483 -> 484 ;
485 [label="mse = 1.2\nsamples = 12\nvalue = 82.6"] ;
484 -> 485 ;
486 [label="day <= 13.5\nmse = 3.2\nsamples = 43\nvalue = 82.2"] ;
484 -> 486 ;
487 [label="mse = 2.4\nsamples = 12\nvalue = 82.0"] ;
486 -> 487 ;
488 [label="day <= 15.5\nmse = 3.4\nsamples = 31\nvalue = 82.3"] ;
486 -> 488 ;
489 [label="day <= 14.5\nmse = 2.5\nsamples = 25\nvalue = 82.3"] ;
488 -> 489 ;
490 [label="mse = 2.4\nsamples = 17\nvalue = 82.2"] ;
489 -> 490 ;
491 [label="mse = 2.7\nsamples = 8\nvalue = 82.6"] ;
489 -> 491 ;
492 [label="mse = 5.5\nsamples = 6\nvalue = 82.1"] ;
488 -> 492 ;
493 [label="day <= 17.5\nmse = 3.6\nsamples = 23\nvalue = 82.5"] ;
483 -> 493 ;
494 [label="mse = 2.2\nsamples = 10\nvalue = 83.1"] ;
493 -> 494 ;
495 [label="mse = 4.2\nsamples = 13\nvalue = 82.1"] ;
493 -> 495 ;
496 [label="day <= 20.5\nmse = 3.6\nsamples = 52\nvalue = 81.8"] ;
474 -> 496 ;
497 [label="day <= 19.5\nmse = 4.1\nsamples = 24\nvalue = 81.9"] ;
496 -> 497 ;
498 [label="mse = 3.8\nsamples = 14\nvalue = 82.0"] ;
497 -> 498 ;
499 [label="mse = 4.7\nsamples = 10\nvalue = 81.9"] ;
497 -> 499 ;
500 [label="day <= 21.5\nmse = 3.2\nsamples = 28\nvalue = 81.6"] ;
496 -> 500 ;
501 [label="mse = 3.8\nsamples = 8\nvalue = 80.9"] ;
500 -> 501 ;
502 [label="mse = 2.6\nsamples = 20\nvalue = 81.9"] ;
500 -> 502 ;
503 [label="mse = 2.7\nsamples = 11\nvalue = 83.0"] ;
459 -> 503 ;
504 [label="day <= 24.5\nmse = 78.1\nsamples = 290\nvalue = 81.8"] ;
366 -> 504 ;
505 [label="place <= 8.5\nmse = 602.2\nsamples = 37\nvalue = 79.1"] ;
504 -> 505 ;
506 [label="place <= 7.5\nmse = 3.9\nsamples = 24\nvalue = 82.4"] ;
505 -> 506 ;
507 [label="mse = 3.5\nsamples = 15\nvalue = 82.5"] ;
506 -> 507 ;
508 [label="mse = 4.6\nsamples = 9\nvalue = 82.0"] ;
506 -> 508 ;
509 [label="mse = 1435.7\nsamples = 13\nvalue = 74.5"] ;
505 -> 509 ;
510 [label="place <= 8.5\nmse = 3.8\nsamples = 253\nvalue = 82.2"] ;
504 -> 510 ;
511 [label="day <= 29.5\nmse = 2.8\nsamples = 174\nvalue = 81.6"] ;
510 -> 511 ;
512 [label="day <= 28.5\nmse = 2.9\nsamples = 117\nvalue = 81.5"] ;
511 -> 512 ;
513 [label="day <= 26.5\nmse = 2.8\nsamples = 94\nvalue = 81.7"] ;
512 -> 513 ;
514 [label="place <= 7.5\nmse = 2.5\nsamples = 50\nvalue = 81.9"] ;
513 -> 514 ;
515 [label="day <= 25.5\nmse = 2.0\nsamples = 26\nvalue = 82.0"] ;
514 -> 515 ;
516 [label="mse = 0.6\nsamples = 11\nvalue = 82.3"] ;
515 -> 516 ;
517 [label="mse = 2.8\nsamples = 15\nvalue = 81.9"] ;
515 -> 517 ;
518 [label="day <= 25.5\nmse = 2.9\nsamples = 24\nvalue = 81.7"] ;
514 -> 518 ;
519 [label="mse = 2.9\nsamples = 10\nvalue = 81.3"] ;
518 -> 519 ;
520 [label="mse = 2.8\nsamples = 14\nvalue = 81.9"] ;
518 -> 520 ;
521 [label="place <= 7.5\nmse = 3.1\nsamples = 44\nvalue = 81.5"] ;
513 -> 521 ;
522 [label="day <= 27.5\nmse = 3.1\nsamples = 26\nvalue = 81.3"] ;
521 -> 522 ;
523 [label="mse = 1.8\nsamples = 12\nvalue = 81.3"] ;
522 -> 523 ;
524 [label="mse = 4.3\nsamples = 14\nvalue = 81.3"] ;
522 -> 524 ;
525 [label="day <= 27.5\nmse = 3.1\nsamples = 18\nvalue = 81.8"] ;
521 -> 525 ;
526 [label="mse = 2.3\nsamples = 12\nvalue = 81.6"] ;
525 -> 526 ;
527 [label="mse = 3.8\nsamples = 6\nvalue = 81.9"] ;
525 -> 527 ;
528 [label="place <= 7.5\nmse = 2.8\nsamples = 23\nvalue = 81.1"] ;
512 -> 528 ;
529 [label="mse = 2.9\nsamples = 13\nvalue = 81.1"] ;
528 -> 529 ;
530 [label="mse = 2.7\nsamples = 10\nvalue = 81.1"] ;
528 -> 530 ;
531 [label="day <= 30.5\nmse = 2.4\nsamples = 57\nvalue = 81.9"] ;
511 -> 531 ;
532 [label="place <= 7.5\nmse = 1.5\nsamples = 30\nvalue = 82.0"] ;
531 -> 532 ;
533 [label="mse = 1.5\nsamples = 13\nvalue = 82.5"] ;
532 -> 533 ;
534 [label="mse = 1.2\nsamples = 17\nvalue = 81.7"] ;
532 -> 534 ;
535 [label="place <= 7.5\nmse = 3.4\nsamples = 27\nvalue = 81.7"] ;
531 -> 535 ;
536 [label="mse = 3.4\nsamples = 12\nvalue = 81.3"] ;
535 -> 536 ;
537 [label="mse = 3.0\nsamples = 15\nvalue = 82.1"] ;
535 -> 537 ;
538 [label="day <= 27.5\nmse = 4.2\nsamples = 79\nvalue = 83.3"] ;
510 -> 538 ;
539 [label="day <= 25.5\nmse = 2.7\nsamples = 41\nvalue = 82.9"] ;
538 -> 539 ;
540 [label="mse = 1.7\nsamples = 15\nvalue = 82.6"] ;
539 -> 540 ;
541 [label="day <= 26.5\nmse = 3.3\nsamples = 26\nvalue = 83.0"] ;
539 -> 541 ;
542 [label="mse = 2.4\nsamples = 13\nvalue = 83.3"] ;
541 -> 542 ;
543 [label="mse = 4.1\nsamples = 13\nvalue = 82.7"] ;
541 -> 543 ;
544 [label="day <= 28.5\nmse = 5.3\nsamples = 38\nvalue = 83.7"] ;
538 -> 544 ;
545 [label="mse = 2.7\nsamples = 12\nvalue = 84.2"] ;
544 -> 545 ;
546 [label="day <= 29.5\nmse = 6.2\nsamples = 26\nvalue = 83.5"] ;
544 -> 546 ;
547 [label="mse = 3.5\nsamples = 12\nvalue = 83.7"] ;
546 -> 547 ;
548 [label="mse = 8.8\nsamples = 14\nvalue = 83.3"] ;
546 -> 548 ;
549 [label="place <= 10.5\nmse = 69.3\nsamples = 677\nvalue = 83.3"] ;
365 -> 549 ;
550 [label="day <= 7.5\nmse = 5.6\nsamples = 341\nvalue = 84.5"] ;
549 -> 550 ;
551 [label="day <= 2.5\nmse = 8.0\nsamples = 65\nvalue = 83.4"] ;
550 -> 551 ;
552 [label="day <= 1.5\nmse = 9.2\nsamples = 21\nvalue = 84.8"] ;
551 -> 552 ;
553 [label="mse = 11.1\nsamples = 10\nvalue = 85.3"] ;
552 -> 553 ;
554 [label="mse = 7.5\nsamples = 11\nvalue = 84.4"] ;
552 -> 554 ;
555 [label="day <= 5.5\nmse = 6.1\nsamples = 44\nvalue = 82.7"] ;
551 -> 555 ;
556 [label="day <= 3.5\nmse = 6.0\nsamples = 26\nvalue = 82.0"] ;
555 -> 556 ;
557 [label="mse = 4.9\nsamples = 9\nvalue = 82.6"] ;
556 -> 557 ;
558 [label="day <= 4.5\nmse = 6.2\nsamples = 17\nvalue = 81.7"] ;
556 -> 558 ;
559 [label="mse = 8.5\nsamples = 9\nvalue = 81.2"] ;
558 -> 559 ;
560 [label="mse = 3.3\nsamples = 8\nvalue = 82.2"] ;
558 -> 560 ;
561 [label="day <= 6.5\nmse = 4.7\nsamples = 18\nvalue = 83.6"] ;
555 -> 561 ;
562 [label="mse = 3.3\nsamples = 7\nvalue = 83.4"] ;
561 -> 562 ;
563 [label="mse = 5.8\nsamples = 11\nvalue = 83.8"] ;
561 -> 563 ;
564 [label="day <= 10.5\nmse = 4.8\nsamples = 276\nvalue = 84.7"] ;
550 -> 564 ;
565 [label="day <= 9.5\nmse = 4.5\nsamples = 38\nvalue = 84.2"] ;
564 -> 565 ;
566 [label="day <= 8.5\nmse = 5.4\nsamples = 25\nvalue = 84.5"] ;
565 -> 566 ;
567 [label="mse = 5.8\nsamples = 13\nvalue = 84.3"] ;
566 -> 567 ;
568 [label="mse = 4.7\nsamples = 12\nvalue = 84.8"] ;
566 -> 568 ;
569 [label="mse = 2.2\nsamples = 13\nvalue = 83.7"] ;
565 -> 569 ;
570 [label="day <= 27.5\nmse = 4.8\nsamples = 238\nvalue = 84.8"] ;
564 -> 570 ;
571 [label="day <= 21.5\nmse = 4.9\nsamples = 187\nvalue = 84.9"] ;
570 -> 571 ;
572 [label="day <= 20.5\nmse = 5.2\nsamples = 121\nvalue = 84.8"] ;
571 -> 572 ;
573 [label="day <= 16.5\nmse = 5.2\nsamples = 109\nvalue = 84.9"] ;
572 -> 573 ;
574 [label="day <= 14.5\nmse = 4.9\nsamples = 58\nvalue = 84.7"] ;
573 -> 574 ;
575 [label="day <= 13.5\nmse = 4.9\nsamples = 42\nvalue = 84.8"] ;
574 -> 575 ;
576 [label="day <= 12.5\nmse = 5.6\nsamples = 30\nvalue = 84.7"] ;
575 -> 576 ;
577 [label="day <= 11.5\nmse = 5.3\nsamples = 17\nvalue = 84.7"] ;
576 -> 577 ;
578 [label="mse = 2.9\nsamples = 8\nvalue = 84.7"] ;
577 -> 578 ;
579 [label="mse = 7.9\nsamples = 9\nvalue = 84.6"] ;
577 -> 579 ;
580 [label="mse = 6.0\nsamples = 13\nvalue = 84.8"] ;
576 -> 580 ;
581 [label="mse = 3.2\nsamples = 12\nvalue = 85.2"] ;
575 -> 581 ;
582 [label="day <= 15.5\nmse = 4.6\nsamples = 16\nvalue = 84.3"] ;
574 -> 582 ;
583 [label="mse = 5.8\nsamples = 7\nvalue = 83.9"] ;
582 -> 583 ;
584 [label="mse = 3.5\nsamples = 9\nvalue = 84.6"] ;
582 -> 584 ;
585 [label="day <= 17.5\nmse = 5.5\nsamples = 51\nvalue = 85.2"] ;
573 -> 585 ;
586 [label="mse = 4.9\nsamples = 11\nvalue = 85.9"] ;
585 -> 586 ;
587 [label="day <= 19.5\nmse = 5.5\nsamples = 40\nvalue = 85.0"] ;
585 -> 587 ;
588 [label="day <= 18.5\nmse = 6.7\nsamples = 24\nvalue = 85.1"] ;
587 -> 588 ;
589 [label="mse = 6.8\nsamples = 13\nvalue = 85.1"] ;
588 -> 589 ;
590 [label="mse = 6.5\nsamples = 11\nvalue = 85.1"] ;
588 -> 590 ;
591 [label="mse = 3.6\nsamples = 16\nvalue = 84.8"] ;
587 -> 591 ;
592 [label="mse = 3.3\nsamples = 12\nvalue = 83.5"] ;
572 -> 592 ;
593 [label="day <= 22.5\nmse = 4.2\nsamples = 66\nvalue = 85.2"] ;
571 -> 593 ;
594 [label="mse = 6.8\nsamples = 11\nvalue = 85.8"] ;
593 -> 594 ;
595 [label="day <= 23.5\nmse = 3.6\nsamples = 55\nvalue = 85.0"] ;
593 -> 595 ;
596 [label="mse = 4.5\nsamples = 11\nvalue = 84.7"] ;
595 -> 596 ;
597 [label="day <= 24.5\nmse = 3.3\nsamples = 44\nvalue = 85.1"] ;
595 -> 597 ;
598 [label="mse = 3.4\nsamples = 9\nvalue = 85.9"] ;
597 -> 598 ;
599 [label="day <= 26.5\nmse = 3.1\nsamples = 35\nvalue = 84.9"] ;
597 -> 599 ;
600 [label="day <= 25.5\nmse = 4.0\nsamples = 23\nvalue = 84.9"] ;
599 -> 600 ;
601 [label="mse = 4.3\nsamples = 9\nvalue = 84.9"] ;
600 -> 601 ;
602 [label="mse = 3.9\nsamples = 14\nvalue = 84.9"] ;
600 -> 602 ;
603 [label="mse = 1.7\nsamples = 12\nvalue = 84.9"] ;
599 -> 603 ;
604 [label="day <= 30.5\nmse = 4.1\nsamples = 51\nvalue = 84.3"] ;
570 -> 604 ;
605 [label="day <= 29.5\nmse = 4.2\nsamples = 39\nvalue = 84.4"] ;
604 -> 605 ;
606 [label="day <= 28.5\nmse = 4.9\nsamples = 24\nvalue = 84.2"] ;
605 -> 606 ;
607 [label="mse = 4.5\nsamples = 12\nvalue = 84.5"] ;
606 -> 607 ;
608 [label="mse = 5.2\nsamples = 12\nvalue = 83.9"] ;
606 -> 608 ;
609 [label="mse = 2.6\nsamples = 15\nvalue = 84.6"] ;
605 -> 609 ;
610 [label="mse = 3.5\nsamples = 12\nvalue = 84.0"] ;
604 -> 610 ;
611 [label="day <= 9.5\nmse = 125.8\nsamples = 336\nvalue = 82.1"] ;
549 -> 611 ;
612 [label="day <= 7.5\nmse = 5.8\nsamples = 100\nvalue = 83.9"] ;
611 -> 612 ;
613 [label="day <= 6.5\nmse = 5.3\nsamples = 73\nvalue = 84.2"] ;
612 -> 613 ;
614 [label="day <= 2.5\nmse = 5.8\nsamples = 62\nvalue = 84.0"] ;
613 -> 614 ;
615 [label="day <= 1.5\nmse = 3.7\nsamples = 22\nvalue = 84.7"] ;
614 -> 615 ;
616 [label="mse = 3.3\nsamples = 12\nvalue = 84.1"] ;
615 -> 616 ;
617 [label="mse = 3.3\nsamples = 10\nvalue = 85.4"] ;
615 -> 617 ;
618 [label="day <= 4.5\nmse = 6.6\nsamples = 40\nvalue = 83.5"] ;
614 -> 618 ;
619 [label="day <= 3.5\nmse = 8.3\nsamples = 19\nvalue = 83.2"] ;
618 -> 619 ;
620 [label="mse = 8.7\nsamples = 9\nvalue = 82.9"] ;
619 -> 620 ;
621 [label="mse = 7.8\nsamples = 10\nvalue = 83.4"] ;
619 -> 621 ;
622 [label="day <= 5.5\nmse = 4.8\nsamples = 21\nvalue = 83.9"] ;
618 -> 622 ;
623 [label="mse = 3.9\nsamples = 13\nvalue = 84.1"] ;
622 -> 623 ;
624 [label="mse = 6.2\nsamples = 8\nvalue = 83.4"] ;
622 -> 624 ;
625 [label="mse = 1.8\nsamples = 11\nvalue = 85.2"] ;
613 -> 625 ;
626 [label="day <= 8.5\nmse = 6.4\nsamples = 27\nvalue = 83.2"] ;
612 -> 626 ;
627 [label="mse = 4.9\nsamples = 12\nvalue = 83.3"] ;
626 -> 627 ;
628 [label="mse = 7.4\nsamples = 15\nvalue = 83.2"] ;
626 -> 628 ;
629 [label="day <= 14.5\nmse = 175.7\nsamples = 236\nvalue = 81.4"] ;
611 -> 629 ;
630 [label="day <= 13.5\nmse = 641.6\nsamples = 60\nvalue = 79.3"] ;
629 -> 630 ;
631 [label="day <= 11.5\nmse = 395.9\nsamples = 48\nvalue = 80.8"] ;
630 -> 631 ;
632 [label="day <= 10.5\nmse = 738.0\nsamples = 25\nvalue = 78.4"] ;
631 -> 632 ;
633 [label="mse = 6.4\nsamples = 13\nvalue = 82.4"] ;
632 -> 633 ;
634 [label="mse = 1437.4\nsamples = 12\nvalue = 74.4"] ;
632 -> 634 ;
635 [label="day <= 12.5\nmse = 5.3\nsamples = 23\nvalue = 83.6"] ;
631 -> 635 ;
636 [label="mse = 5.4\nsamples = 13\nvalue = 83.1"] ;
635 -> 636 ;
637 [label="mse = 4.5\nsamples = 10\nvalue = 84.2"] ;
635 -> 637 ;
638 [label="mse = 1723.6\nsamples = 12\nvalue = 72.0"] ;
630 -> 638 ;
639 [label="day <= 19.5\nmse = 6.3\nsamples = 176\nvalue = 82.1"] ;
629 -> 639 ;
640 [label="day <= 15.5\nmse = 5.9\nsamples = 60\nvalue = 82.7"] ;
639 -> 640 ;
641 [label="mse = 4.3\nsamples = 13\nvalue = 83.0"] ;
640 -> 641 ;
642 [label="day <= 16.5\nmse = 6.3\nsamples = 47\nvalue = 82.6"] ;
640 -> 642 ;
643 [label="mse = 4.4\nsamples = 11\nvalue = 82.3"] ;
642 -> 643 ;
644 [label="day <= 17.5\nmse = 6.9\nsamples = 36\nvalue = 82.8"] ;
642 -> 644 ;
645 [label="mse = 6.5\nsamples = 10\nvalue = 82.6"] ;
644 -> 645 ;
646 [label="day <= 18.5\nmse = 7.0\nsamples = 26\nvalue = 82.8"] ;
644 -> 646 ;
647 [label="mse = 4.6\nsamples = 12\nvalue = 83.0"] ;
646 -> 647 ;
648 [label="mse = 8.7\nsamples = 14\nvalue = 82.7"] ;
646 -> 648 ;
649 [label="day <= 29.5\nmse = 6.1\nsamples = 116\nvalue = 81.7"] ;
639 -> 649 ;
650 [label="day <= 20.5\nmse = 5.7\nsamples = 108\nvalue = 81.8"] ;
649 -> 650 ;
651 [label="mse = 5.6\nsamples = 15\nvalue = 81.3"] ;
650 -> 651 ;
652 [label="day <= 23.5\nmse = 5.6\nsamples = 93\nvalue = 81.9"] ;
650 -> 652 ;
653 [label="day <= 22.5\nmse = 5.3\nsamples = 28\nvalue = 82.4"] ;
652 -> 653 ;
654 [label="day <= 21.5\nmse = 6.2\nsamples = 18\nvalue = 82.2"] ;
653 -> 654 ;
655 [label="mse = 9.4\nsamples = 9\nvalue = 82.2"] ;
654 -> 655 ;
656 [label="mse = 3.9\nsamples = 9\nvalue = 82.2"] ;
654 -> 656 ;
657 [label="mse = 3.2\nsamples = 10\nvalue = 82.9"] ;
653 -> 657 ;
658 [label="day <= 26.5\nmse = 5.6\nsamples = 65\nvalue = 81.7"] ;
652 -> 658 ;
659 [label="day <= 24.5\nmse = 4.1\nsamples = 35\nvalue = 81.5"] ;
658 -> 659 ;
660 [label="mse = 4.2\nsamples = 12\nvalue = 81.2"] ;
659 -> 660 ;
661 [label="day <= 25.5\nmse = 3.9\nsamples = 23\nvalue = 81.6"] ;
659 -> 661 ;
662 [label="mse = 2.5\nsamples = 13\nvalue = 81.8"] ;
661 -> 662 ;
663 [label="mse = 5.9\nsamples = 10\nvalue = 81.4"] ;
661 -> 663 ;
664 [label="day <= 27.5\nmse = 7.3\nsamples = 30\nvalue = 82.0"] ;
658 -> 664 ;
665 [label="mse = 5.5\nsamples = 9\nvalue = 82.3"] ;
664 -> 665 ;
666 [label="day <= 28.5\nmse = 8.3\nsamples = 21\nvalue = 81.8"] ;
664 -> 666 ;
667 [label="mse = 7.7\nsamples = 10\nvalue = 81.6"] ;
666 -> 667 ;
668 [label="mse = 8.5\nsamples = 11\nvalue = 81.9"] ;
666 -> 668 ;
669 [label="mse = 9.7\nsamples = 8\nvalue = 80.3"] ;
649 -> 669 ;
670 [label="day <= 29.5\nmse = 485.5\nsamples = 349\nvalue = 76.2"] ;
120 -> 670 ;
671 [label="day <= 23.5\nmse = 141.9\nsamples = 323\nvalue = 78.4"] ;
670 -> 671 ;
672 [label="day <= 6.5\nmse = 9.4\nsamples = 253\nvalue = 79.6"] ;
671 -> 672 ;
673 [label="day <= 4.5\nmse = 8.2\nsamples = 72\nvalue = 81.2"] ;
672 -> 673 ;
674 [label="day <= 3.5\nmse = 6.0\nsamples = 47\nvalue = 81.5"] ;
673 -> 674 ;
675 [label="day <= 2.5\nmse = 6.1\nsamples = 36\nvalue = 81.3"] ;
674 -> 675 ;
676 [label="day <= 1.5\nmse = 6.3\nsamples = 25\nvalue = 81.2"] ;
675 -> 676 ;
677 [label="mse = 7.5\nsamples = 13\nvalue = 81.3"] ;
676 -> 677 ;
678 [label="mse = 5.1\nsamples = 12\nvalue = 81.2"] ;
676 -> 678 ;
679 [label="mse = 5.7\nsamples = 11\nvalue = 81.3"] ;
675 -> 679 ;
680 [label="mse = 4.8\nsamples = 11\nvalue = 82.4"] ;
674 -> 680 ;
681 [label="day <= 5.5\nmse = 11.6\nsamples = 25\nvalue = 80.6"] ;
673 -> 681 ;
682 [label="mse = 15.6\nsamples = 13\nvalue = 79.6"] ;
681 -> 682 ;
683 [label="mse = 4.7\nsamples = 12\nvalue = 81.7"] ;
681 -> 683 ;
684 [label="day <= 21.5\nmse = 8.5\nsamples = 181\nvalue = 79.0"] ;
672 -> 684 ;
685 [label="day <= 9.5\nmse = 7.9\nsamples = 157\nvalue = 79.2"] ;
684 -> 685 ;
686 [label="day <= 7.5\nmse = 6.8\nsamples = 31\nvalue = 79.9"] ;
685 -> 686 ;
687 [label="mse = 6.5\nsamples = 11\nvalue = 79.0"] ;
686 -> 687 ;
688 [label="day <= 8.5\nmse = 6.5\nsamples = 20\nvalue = 80.3"] ;
686 -> 688 ;
689 [label="mse = 4.6\nsamples = 12\nvalue = 80.0"] ;
688 -> 689 ;
690 [label="mse = 9.0\nsamples = 8\nvalue = 80.7"] ;
688 -> 690 ;
691 [label="day <= 15.5\nmse = 8.1\nsamples = 126\nvalue = 79.0"] ;
685 -> 691 ;
692 [label="day <= 14.5\nmse = 5.1\nsamples = 69\nvalue = 79.2"] ;
691 -> 692 ;
693 [label="day <= 11.5\nmse = 4.7\nsamples = 60\nvalue = 79.1"] ;
692 -> 693 ;
694 [label="day <= 10.5\nmse = 3.9\nsamples = 25\nvalue = 78.9"] ;
693 -> 694 ;
695 [label="mse = 2.6\nsamples = 11\nvalue = 79.0"] ;
694 -> 695 ;
696 [label="mse = 4.9\nsamples = 14\nvalue = 78.9"] ;
694 -> 696 ;
697 [label="day <= 12.5\nmse = 5.3\nsamples = 35\nvalue = 79.2"] ;
693 -> 697 ;
698 [label="mse = 5.3\nsamples = 17\nvalue = 79.2"] ;
697 -> 698 ;
699 [label="day <= 13.5\nmse = 5.4\nsamples = 18\nvalue = 79.2"] ;
697 -> 699 ;
700 [label="mse = 1.9\nsamples = 8\nvalue = 79.2"] ;
699 -> 700 ;
701 [label="mse = 8.2\nsamples = 10\nvalue = 79.3"] ;
699 -> 701 ;
702 [label="mse = 7.3\nsamples = 9\nvalue = 80.3"] ;
692 -> 702 ;
703 [label="day <= 16.5\nmse = 11.3\nsamples = 57\nvalue = 78.8"] ;
691 -> 703 ;
704 [label="mse = 35.1\nsamples = 7\nvalue = 77.3"] ;
703 -> 704 ;
705 [label="day <= 18.5\nmse = 8.0\nsamples = 50\nvalue = 79.0"] ;
703 -> 705 ;
706 [label="day <= 17.5\nmse = 7.9\nsamples = 18\nvalue = 78.7"] ;
705 -> 706 ;
707 [label="mse = 5.3\nsamples = 7\nvalue = 79.4"] ;
706 -> 707 ;
708 [label="mse = 9.1\nsamples = 11\nvalue = 78.2"] ;
706 -> 708 ;
709 [label="day <= 20.5\nmse = 8.0\nsamples = 32\nvalue = 79.1"] ;
705 -> 709 ;
710 [label="day <= 19.5\nmse = 8.9\nsamples = 19\nvalue = 79.4"] ;
709 -> 710 ;
711 [label="mse = 7.8\nsamples = 10\nvalue = 79.0"] ;
710 -> 711 ;
712 [label="mse = 9.7\nsamples = 9\nvalue = 79.7"] ;
710 -> 712 ;
713 [label="mse = 6.1\nsamples = 13\nvalue = 78.7"] ;
709 -> 713 ;
714 [label="day <= 22.5\nmse = 9.5\nsamples = 24\nvalue = 77.7"] ;
684 -> 714 ;
715 [label="mse = 9.5\nsamples = 13\nvalue = 78.0"] ;
714 -> 715 ;
716 [label="mse = 9.2\nsamples = 11\nvalue = 77.2"] ;
714 -> 716 ;
717 [label="day <= 24.5\nmse = 593.3\nsamples = 70\nvalue = 74.1"] ;
671 -> 717 ;
718 [label="mse = 4586.9\nsamples = 8\nvalue = 44.6"] ;
717 -> 718 ;
719 [label="day <= 27.5\nmse = 6.1\nsamples = 62\nvalue = 77.6"] ;
717 -> 719 ;
720 [label="day <= 25.5\nmse = 6.6\nsamples = 42\nvalue = 77.4"] ;
719 -> 720 ;
721 [label="mse = 4.5\nsamples = 14\nvalue = 77.6"] ;
720 -> 721 ;
722 [label="day <= 26.5\nmse = 7.9\nsamples = 28\nvalue = 77.2"] ;
720 -> 722 ;
723 [label="mse = 6.7\nsamples = 13\nvalue = 77.0"] ;
722 -> 723 ;
724 [label="mse = 8.6\nsamples = 15\nvalue = 77.4"] ;
722 -> 724 ;
725 [label="day <= 28.5\nmse = 4.8\nsamples = 20\nvalue = 78.0"] ;
719 -> 725 ;
726 [label="mse = 3.5\nsamples = 7\nvalue = 77.8"] ;
725 -> 726 ;
727 [label="mse = 5.5\nsamples = 13\nvalue = 78.1"] ;
725 -> 727 ;
728 [label="day <= 30.5\nmse = 3435.3\nsamples = 26\nvalue = 54.1"] ;
670 -> 728 ;
729 [label="mse = 4141.3\nsamples = 15\nvalue = 48.4"] ;
728 -> 729 ;
730 [label="mse = 2553.7\nsamples = 11\nvalue = 60.6"] ;
728 -> 730 ;
}